Language model created by QuickLM on Sat Apr 19 00:30:51 EDT 2014
Copyright (c) 1996-2010 Carnegie Mellon University and Alexander I. Rudnicky

The model is in standard ARPA format, designed by Doug Paul while he was at MITRE.

The code that was used to produce this language model is available in Open Source.
Please visit http://www.speech.cs.cmu.edu/tools/ for more information

The (fixed) discount mass is 0.5. The backoffs are computed using the ratio method.
This model based on a corpus of 11 sentences and 17 words

\data\
ngram 1=17
ngram 2=32
ngram 3=37

\1-grams:
-1.1787 </s> -0.3010
-1.1787 <s> -0.2713
-1.9191 BED -0.2541
-1.1787 EYRIE -0.2570
-2.2201 FOR -0.2958
-1.1787 HEY -0.2713
-1.5211 ITS -0.2684
-1.5211 LIGHTS -0.2599
-2.2201 LOWER -0.2877
-1.9191 OFF -0.2570
-1.9191 ON -0.2570
-1.7430 SLEEP -0.2541
-2.2201 SLEEPY -0.2850
-1.5211 THE -0.2877
-1.4420 TIME -0.2628
-1.9191 TO -0.2931
-1.6180 TURN -0.2768

\2-grams:
-0.3010 <s> HEY 0.0000
-0.6021 BED </s> -0.3010
-0.6021 BED TIME -0.1761
-0.6435 EYRIE ITS 0.0000
-1.3424 EYRIE LOWER 0.0000
-1.3424 EYRIE TIME -0.2218
-0.7404 EYRIE TURN 0.0000
-0.3010 FOR BED -0.1761
-0.3010 HEY EYRIE 0.0000
-1.0000 ITS BED -0.1761
-1.0000 ITS SLEEP -0.2218
-1.0000 ITS SLEEPY 0.0000
-0.6990 ITS TIME -0.1761
-0.5229 LIGHTS </s> -0.3010
-1.0000 LIGHTS OFF -0.1761
-1.0000 LIGHTS ON -0.1761
-0.3010 LOWER THE 0.0000
-0.6021 OFF </s> -0.3010
-0.6021 OFF THE 0.0000
-0.6021 ON </s> -0.3010
-0.6021 ON THE 0.0000
-0.4771 SLEEP </s> -0.3010
-0.7782 SLEEP TIME -0.1761
-0.3010 SLEEPY TIME -0.1761
-0.3010 THE LIGHTS 0.0000
-0.6021 TIME </s> -0.3010
-1.0792 TIME FOR 0.0000
-0.7782 TIME TO 0.0000
-0.3010 TO SLEEP -0.1249
-0.9031 TURN OFF -0.1761
-0.9031 TURN ON -0.1761
-0.6021 TURN THE 0.0000

\3-grams:
-0.3010 <s> HEY EYRIE
-0.3010 BED TIME </s>
-1.0000 EYRIE ITS BED
-1.0000 EYRIE ITS SLEEP
-1.0000 EYRIE ITS SLEEPY
-0.6990 EYRIE ITS TIME
-0.3010 EYRIE LOWER THE
-0.3010 EYRIE TIME TO
-0.9031 EYRIE TURN OFF
-0.9031 EYRIE TURN ON
-0.6021 EYRIE TURN THE
-0.3010 FOR BED </s>
-0.6435 HEY EYRIE ITS
-1.3424 HEY EYRIE LOWER
-1.3424 HEY EYRIE TIME
-0.7404 HEY EYRIE TURN
-0.3010 ITS BED TIME
-0.3010 ITS SLEEP TIME
-0.3010 ITS SLEEPY TIME
-0.6021 ITS TIME FOR
-0.6021 ITS TIME TO
-0.3010 LIGHTS OFF </s>
-0.3010 LIGHTS ON </s>
-0.3010 LOWER THE LIGHTS
-0.3010 OFF THE LIGHTS
-0.3010 ON THE LIGHTS
-0.3010 SLEEP TIME </s>
-0.3010 SLEEPY TIME </s>
-0.5229 THE LIGHTS </s>
-1.0000 THE LIGHTS OFF
-1.0000 THE LIGHTS ON
-0.3010 TIME FOR BED
-0.3010 TIME TO SLEEP
-0.3010 TO SLEEP </s>
-0.3010 TURN OFF THE
-0.3010 TURN ON THE
-0.3010 TURN THE LIGHTS

\end\
